//Numpy array shape [8, 16]
//Min -0.714292705059
//Max 0.765697121620
//Number of zeros 64

#ifndef W22_H_
#define W22_H_

#ifndef __SYNTHESIS__
dense_1_default_t w22[128];
#else
dense_1_default_t w22[128] = {0.000000000000, 0.675940096378, 0.776286602020, -0.507655382156, 0.000000000000, -0.850004792213, -0.000000000000, -0.000000000000, -0.000000000000, -0.000000000000, -0.575114250183, 0.000000000000, 0.000000000000, 0.521405518055, 0.620052874088, -1.081685781479, -0.000000000000, -0.000000000000, 0.000000000000, 0.442808985710, -0.493051052094, 0.632158637047, 0.000000000000, 0.000000000000, 0.000000000000, -0.000000000000, -0.903457701206, -0.000000000000, -0.000000000000, -0.000000000000, -0.000000000000, 0.000000000000, 1.428328037262, 0.610945522785, 0.688711524010, -0.573485076427, 0.766038835049, -0.000000000000, -0.000000000000, -0.721208274364, -0.000000000000, -0.000000000000, 0.000000000000, 1.308220744133, 0.000000000000, -0.854474663734, -0.000000000000, 0.636893868446, 0.000000000000, -0.718164741993, -0.531687021255, 0.944532036781, 0.522954106331, 0.639617145061, 0.000000000000, -0.596774876118, 0.000000000000, 1.757259011269, -0.000000000000, -0.000000000000, 0.000000000000, -0.687005817890, -0.608605206013, 0.000000000000, -0.000000000000, -0.746735155582, -0.587737619877, 1.081914901733, 0.399072587490, -0.701435506344, 0.000000000000, 0.330703675747, 0.000000000000, 0.000000000000, -0.000000000000, -1.123273134232, -1.035507321358, 0.542982757092, 0.918968796730, -0.000000000000, 0.000000000000, -1.046800971031, -0.000000000000, 0.546482026577, 0.550766766071, -0.000000000000, -0.000000000000, -0.000000000000, -0.942516148090, -0.000000000000, 0.000000000000, -0.772487878799, 0.000000000000, -0.726603031158, 1.017683148384, -1.355982422829, -0.000000000000, 0.775515675545, -0.000000000000, -0.602724969387, 0.000000000000, 0.000000000000, -0.000000000000, -0.602790832520, -1.116753697395, -0.000000000000, 1.522194743156, -0.889981508255, -0.801066994667, -0.000000000000, -0.980925559998, 0.000000000000, -0.000000000000, 0.618881106377, -0.000000000000, 0.403744488955, -0.000000000000, 0.547352671623, -0.000000000000, 1.087512731552, 1.296419382095, -0.000000000000, -0.000000000000, -0.000000000000, -1.052712678909, 0.543157219887, 0.622137546539, -0.000000000000};
#endif

#endif
